// snn_weights.h
// Auto-generated weight matrices for SNN-SHM
// WARNING: Large file - stored in PROGMEM

#ifndef SNN_WEIGHTS_H
#define SNN_WEIGHTS_H

#include <pgmspace.h>

// fc1 weights: 128 x 5
const int8_t fc1_weight[128][5] PROGMEM = {
  {57, 18, 24, 14, -20},
  {44, 12, -8, 48, 39},
  {71, 87, 84, -90, 32},
  {-57, -25, -39, 57, -48},
  {-8, 13, -41, 56, -60},
  {-60, -43, -66, -89, 38},
  {29, -18, -3, 41, 26},
  {-2, -10, 58, -56, 40},
  {-27, 81, -72, 38, 66},
  {-25, -58, 63, 55, -52},
  {19, 43, 64, 90, -22},
  {105, 73, -19, -28, -18},
  {-69, -25, -23, -47, 38},
  {-48, 39, -33, -71, 52},
  {42, 48, -23, 38, -59},
  {5, 25, -63, 35, -81},
  {61, 3, -58, -31, 58},
  {-40, -20, 8, 86, -54},
  {103, -44, -55, 16, 75},
  {-98, -39, -63, 22, 70},
  {53, 23, -60, 64, 30},
  {18, -34, 33, -59, -28},
  {71, -44, -68, 87, -70},
  {7, 47, 75, 57, 22},
  {-77, -33, -61, 22, 16},
  {-45, 54, -34, 97, -43},
  {44, 66, -70, 21, 21},
  {1, -27, -42, -11, 38},
  {-16, -63, -93, 112, -72},
  {-51, 2, -1, -30, 31},
  {79, 42, -74, 8, 8},
  {-63, -54, -9, -66, -8},
  {66, 48, -34, -39, 86},
  {93, 92, -89, 3, 36},
  {-65, -75, 30, -5, 21},
  {65, 66, 0, -44, -57},
  {-39, -15, 85, -57, -24},
  {-20, 63, -63, -63, -80},
  {3, 16, -44, 8, 73},
  {-74, 11, -44, -76, -16},
  {-18, -23, -45, 97, 47},
  {97, 67, -20, -36, 22},
  {-46, -44, -34, 11, 5},
  {-75, 5, -2, 55, -7},
  {41, 16, -75, 84, -51},
  {54, -97, -48, -96, -75},
  {27, 12, -7, 69, -52},
  {-31, -41, 22, -32, 57},
  {95, -49, -90, 31, -62},
  {65, -27, -27, 44, -52},
  {6, -17, -7, -86, 48},
  {-94, -81, -33, -82, -38},
  {-99, 97, -66, 40, -70},
  {-105, -5, -38, 72, -64},
  {-79, 56, 90, -57, 77},
  {-95, 62, -74, -13, 10},
  {-74, 10, 67, 51, -45},
  {71, 89, 49, 12, -30},
  {23, -75, 33, -49, 64},
  {55, -31, 41, -17, 94},
  {-8, -3, 14, -66, 41},
  {-45, -67, 11, 96, 34},
  {-89, -44, -53, -92, 17},
  {9, 12, 10, 74, 38},
  {-96, -87, 75, 0, -20},
  {30, -18, 65, -81, 41},
  {-49, 23, -52, 81, -74},
  {-4, 47, -16, -102, -2},
  {-79, -28, 20, 40, 33},
  {99, 94, -67, -24, 1},
  {57, -44, 83, -7, -80},
  {-30, -2, 71, 93, -41},
  {10, -19, 38, -103, 69},
  {41, -92, 7, -83, -4},
  {77, -59, -16, 63, 15},
  {-27, 56, -24, 2, 61},
  {-42, -18, -57, 39, -53},
  {-20, -23, 47, -59, 38},
  {10, 35, 97, -45, -38},
  {72, 85, -20, -45, -40},
  {-51, 50, 12, 85, -31},
  {-39, -90, 43, -90, -64},
  {-32, 60, -69, -39, 83},
  {-18, -35, 69, 127, -47},
  {36, -8, -33, 32, -3},
  {102, 56, 67, 23, -70},
  {-59, -65, -1, -35, 7},
  {31, -13, 42, 74, 4},
  {-51, 36, 61, -11, 55},
  {45, 92, -41, -65, 90},
  {20, 40, -39, 54, 29},
  {34, -9, 0, -28, 16},
  {26, 30, -21, 38, 18},
  {-74, -60, -30, -49, 32},
  {-26, 52, 65, 98, 10},
  {-31, 42, -72, 7, -11},
  {-27, 24, 7, -93, 22},
  {-49, -37, -58, -71, 82},
  {-46, -17, 57, -92, -19},
  {65, 53, 7, 66, 13},
  {34, -39, 55, 50, -51},
  {-22, 111, 43, -16, -12},
  {-6, -12, 55, 107, 15},
  {49, -87, 33, -72, 50},
  {43, -20, 4, 52, -19},
  {-12, 24, 91, -63, -70},
  {74, 93, 12, -92, 39},
  {-10, 72, 42, 50, 62},
  {66, -23, 38, -42, -48},
  {75, 48, -7, 4, -36},
  {23, 48, 21, 75, -56},
  {103, -35, 4, 51, 56},
  {82, 59, 22, 81, -1},
  {34, -37, 5, 86, 23},
  {9, 7, 44, 64, 5},
  {65, 34, -95, 72, 57},
  {73, 74, 32, 94, 53},
  {-60, -14, 16, -27, -4},
  {-50, -4, 2, 17, -9},
  {-48, -26, -55, 24, 17},
  {-76, -2, 74, -29, 1},
  {31, 58, 64, -33, -18},
  {49, 36, -16, 52, 8},
  {5, -27, 79, 106, 60},
  {3, -39, 89, 34, -28},
  {17, 44, -89, 68, -94},
  {23, 18, -58, 46, 5},
  {-27, 49, 66, -47, 20}
};

// fc1 bias: 128
const int8_t fc1_bias[128] PROGMEM = {
  -3, -64, -4, 20, -11, 32, -49, -50, 11, 7, 3, 27, 5, -5, 34, -30, -21, 61, 19, -2, 15, -43, 23, -7, 38, -12, -3, 29, 7, 38, 24, -36, 4, -17, -16, -2, 51, 22, 23, -12, 26, 39, 4, 0, 8, -6, 20, 81, -11, 5, -8, -13, 2, 12, 0, 0, 5, -23, 16, -6, 64, 3, -38, 5, -3, 6, 33, 0, -9, 5, -2, -9, 31, 5, 14, 18, 6, 40, 23, 0, 53, -16, 15, 12, 63, 15, 11, 12, 13, -18, 9, -4, 126, -4, 8, 19, 64, 4, -9, -70, 4, -1, -21, 16, -72, 2, 10, -3, -26, 48, 22, 36, -28, -19, -62, 0, -6, -87, -19, -1, -21, -1, -3, 1, -28, 13, 81, 15
};

// fc2 weights: 64 x 128
const int8_t fc2_weight[64][128] PROGMEM = {
  {-30, -1, 16, 21, -59, -21, 87, 87, 58, -25, -78, 15, -1, -92, 54, -114, -77, -47, 49, 11, 28, -19, 4, 69, -70, -65, -58, -87, 46, 94, 15, -57, 12, -10, 42, -27, -34, 27, -50, 80, 29, -8, 40, 83, -23, -91, -47, -61, -108, 67, -4, 35, 42, -21, 7, 66, 84, 0, 36, 85, 80, 24, -30, -59, 50, 39, 39, -14, -59, -45, -45, -102, 12, -16, -67, -3, -22, 83, 32, -68, 31, 39, 84, -29, -52, -36, 33, 59, -30, 2, 78, -77, 10, 6, -38, 43, 36, -23, 1, -44, 0, 95, -38, -85, 39, -84, 36, -55, -3, 28, 55, -1, 51, -105, 35, 10, -42, -63, 3, 56, 72, 72, 49, -26, 14, -112, -42, 50},
  {-45, 17, -35, -14, -103, 27, -43, 41, 47, 16, -114, -44, -9, -46, -91, -100, -28, -95, -65, -62, -79, -14, 58, 41, 33, -38, 0, -38, -4, 7, 35, 78, 43, 63, 48, -25, 100, -34, -39, 102, 38, -13, -48, 59, 25, 31, 66, 80, -10, -8, 84, 73, -79, 17, 28, 77, 33, -83, 63, 41, -88, 78, -9, 42, -54, 6, -45, 73, -100, 42, 89, 44, 19, 21, -103, 63, 20, -59, -36, -77, -92, 59, -78, 8, 50, -56, 87, -86, -68, -61, 2, -65, 21, 30, 4, -3, -52, 61, 72, -93, -72, -13, -77, -89, -2, -51, 45, -35, -30, 57, 55, -89, -74, 3, 50, 79, -28, -84, 79, -75, 24, -82, -74, -83, -12, -50, -107, 37},
  {16, -62, -12, -43, 81, 37, -9, -47, -64, -88, -66, -6, -86, -68, 97, 42, -20, -46, 117, -47, 7, -107, -62, 81, 71, 103, 13, -72, 61, -26, 122, -82, 17, -14, 9, 23, 14, -69, 27, -30, 20, 102, -40, 41, 59, -28, -29, 81, -74, -71, -9, -65, -3, 65, -53, -1, -49, 57, 79, -2, -1, 57, -13, 51, 14, -57, 69, 62, -36, 70, -11, 40, -103, 34, 1, 74, -15, -18, -34, 20, 35, 7, -61, 102, 55, -75, 8, 92, -64, -18, 107, 50, 75, -44, 39, -20, -23, 47, 12, 13, 57, -36, -36, 3, 31, -24, 38, 62, 18, 20, 69, 12, 67, 93, -47, 78, -18, 19, 99, -41, -51, 76, -48, -26, 58, 58, -61, -49},
  {3, -52, -12, -18, -59, -28, 24, 37, -42, 35, 80, -13, -28, -52, 47, 81, -12, -6, -77, -76, 49, 93, -2, 59, 41, 82, -99, -9, 59, 63, 34, 65, -61, -25, -46, 72, -72, -32, -54, -6, -78, -30, 46, -3, 17, -9, -24, 83, -57, -2, 7, 74, 95, -33, 24, 57, 12, -97, -39, -53, -19, 72, 8, -77, 33, -53, 4, -85, 8, -73, 81, 31, -14, 29, 75, 87, -7, -52, 98, -1, -58, -88, -5, 81, 39, 17, 72, -28, 47, -44, 52, 43, -69, -61, -19, -5, 105, 1, 66, 53, 23, -44, 47, -85, -81, -43, 4, 43, 42, -60, 20, -103, -37, 77, 88, -44, -4, 69, 26, 36, 13, -56, -63, 36, 16, -35, 8, -38},
  {-40, -47, -10, 100, 101, 58, 26, 6, 16, 14, -22, 88, -55, 58, 69, -72, -49, 99, -48, 20, 32, -52, 89, 61, -58, -43, 21, 52, 1, -10, 93, -81, -33, -56, -55, 67, -1, 36, -69, -40, 41, 35, 0, -19, 127, 6, -55, -16, 12, 33, -74, -64, -70, 30, -58, -8, 0, 77, 16, 94, 5, 46, -93, 15, 27, 26, 89, 5, 15, 12, 53, 25, -98, -91, -4, 47, -15, -101, 42, -21, -36, -79, -9, -45, 43, 54, -49, 60, -75, 12, 112, 47, 53, 44, -3, -69, -4, 58, -113, 98, 68, 11, -10, 79, 79, -53, 33, 16, -70, 103, 114, 93, -24, 20, 43, 100, 106, -36, -43, 25, -33, 49, -33, -50, -34, 15, -35, 23},
  {54, 7, -68, 0, -90, -24, 0, -61, 85, 38, 41, 74, 87, 46, -52, -15, 63, -46, 45, 67, -36, 78, 18, -8, 9, -81, -80, -31, 33, 91, -47, 4, 99, 60, -20, -30, -72, -31, 49, 78, -10, -62, 33, 88, -30, -84, 44, -77, -4, -23, 12, 16, 32, -58, -50, -1, -35, -73, 22, -90, -45, -9, -1, -53, -73, -36, 22, 17, 66, -24, -88, 46, 79, 27, -84, -71, 52, -61, 85, 85, 101, -83, 83, -31, 31, -88, 27, 61, 68, -76, 53, -90, 7, 10, 40, -103, -94, 65, 86, -55, 85, 83, 66, -96, 8, 87, 98, 38, -49, 76, -9, 74, 101, -24, 60, -6, -54, 69, -19, 31, -26, 5, 71, -65, -48, 78, -97, -97},
  {98, -34, 18, -76, 19, -71, -21, -2, 0, 1, -35, -5, 96, 24, -37, 12, -48, -89, -77, -70, -20, -39, 48, 90, -18, -11, -82, -21, -19, -64, 90, 25, 51, 72, -37, 82, 5, -49, 36, 41, 4, -77, -94, -6, -8, -23, 33, 37, 70, -47, 35, 2, -58, 74, -16, 73, -33, 1, -89, -74, -25, -21, 96, 64, -21, -24, -35, 17, 21, 67, -57, -16, 74, -57, 26, -52, -63, 10, 17, 45, -93, -35, -30, -11, 16, 9, -81, -21, -56, -2, -44, 74, 40, 56, -90, -71, -11, -33, 19, 9, -53, 14, -65, -4, 97, 18, 51, -11, 96, -41, -12, 53, -84, 41, 75, 91, -78, -24, 49, 69, -38, 99, -56, -64, 83, 0, 7, -18},
  {19, 31, 75, 40, 10, 55, -69, -91, 18, 49, -9, 62, -101, 38, 7, -34, 9, 94, -4, -82, -35, -54, 77, -78, 60, 81, 99, -68, 86, -40, 32, -23, -14, 114, -20, -38, -69, -61, 92, -4, -62, 82, 65, 72, 104, -42, 66, -59, -54, -28, 15, 30, -35, 42, 48, -72, -43, 5, 28, 22, -62, -59, -107, -46, -79, -68, 0, -68, 0, -7, -83, -19, -49, -89, 103, -59, -88, 6, 70, -23, 56, -32, 52, 106, -73, 74, -39, -15, 20, 96, 105, -34, 69, -62, 33, 78, -34, -57, -36, 44, -11, -85, -37, 7, 8, 56, -44, 60, -61, -64, 4, 100, 29, 60, 103, -52, -65, -88, 81, 10, 52, -55, 45, 69, -70, -15, 92, 26},
  {56, 52, -50, 38, 35, -21, 24, -86, 9, 88, -10, 44, -13, -32, -30, 66, 34, -89, 32, -64, 40, -84, 30, -13, -2, 89, -25, -52, -81, 27, 5, -83, -66, -62, -86, -41, 32, 85, -71, -1, -46, 44, -79, 52, -7, 89, 68, -28, 79, 41, 16, -73, 44, -45, -73, -50, -68, 92, 88, 96, -20, -81, 3, 64, -25, -10, 23, -46, -88, -61, 12, -11, 36, -68, 89, -80, 95, -83, -14, 66, 75, -86, 72, 35, 67, 55, 43, 0, -91, -16, 19, -58, -54, -68, 78, -25, -55, -75, 1, 77, -85, 25, -52, -59, 26, -42, -8, -7, 24, -15, 80, 67, 5, -62, 94, 82, 17, 94, 76, -79, -85, 27, 47, -62, 30, -14, -63, -20},
  {68, 102, -12, 68, 32, -97, 18, -54, -36, 60, -45, 79, 79, 43, 14, -47, -81, -62, -43, 60, 81, 1, 55, -81, -30, 100, -22, 24, 58, -82, -19, -25, -84, 74, 54, 8, -41, -37, -82, -52, -74, 10, 31, -5, -19, 49, -12, -37, 46, -48, 91, -1, -51, -90, -48, -94, 0, 34, 2, -31, -31, -11, 7, 112, -48, -22, -44, -23, -22, 71, -77, -52, 6, -50, 80, 64, -41, 87, -88, -24, -9, -86, -46, -65, -26, 91, -66, 40, 36, 6, 98, 78, 98, -62, -2, -78, -19, 59, 72, 2, 73, -42, -18, 0, 21, 77, 101, -17, -30, -34, 68, -40, 1, -20, 70, -56, 104, -48, 50, -46, 48, 22, -37, 94, -84, 76, 61, 19},
  {26, -70, -47, -55, -13, 56, -44, 31, 81, -65, 66, 19, 25, 60, 47, -66, 65, -26, -36, -44, 103, -22, 85, 21, 23, -6, -84, -31, -95, -9, 12, -88, -3, -7, 3, 64, 27, 72, 96, -89, -56, -18, 24, -47, 3, -2, 47, 45, 89, -53, -52, -54, -100, 71, -3, -61, -15, -92, -17, -17, 52, 97, -28, 33, -54, 110, 83, 23, 84, 92, -10, 48, -7, 80, 69, -33, -89, -56, -12, 85, 65, 79, -73, -92, -49, 76, -42, 58, -62, -30, 27, 22, 13, -88, 83, -77, -39, 84, -51, -38, 83, 86, 26, 34, -8, -88, -65, -60, 61, -24, 66, -86, 90, -43, 45, -11, -17, -28, 26, -59, -105, 33, 28, 84, 50, 78, 14, -101},
  {-13, -29, 44, -6, -10, -93, -54, 73, 4, -7, 91, 56, 19, -23, -70, -66, -34, 12, 93, 15, 47, -40, 72, -14, -77, 12, 87, 83, 67, -29, 68, 58, 101, 62, -15, 35, -15, -30, 81, -117, 47, 51, 0, -61, -17, 56, 121, -10, -78, -1, -3, -36, 19, 5, -43, 52, 28, -9, -7, -38, 18, -55, -59, 119, 49, 51, 42, 69, 87, -13, 12, 11, -80, -66, 15, -71, -33, 47, -1, -3, 74, -69, 37, -4, -44, -4, 29, 36, 40, 25, 40, -23, 98, 31, 117, 58, -57, -88, -22, 80, 18, 1, -46, -92, 6, -8, -24, 46, -99, 34, 101, -32, 101, 47, 52, -10, -21, 21, -7, -9, -82, 17, -37, -9, -79, 94, 24, 52},
  {39, -1, -25, -8, 100, 27, -54, -43, -50, -73, -7, 17, -73, -80, 72, -6, -64, -60, 49, 72, 31, -75, -23, 23, 53, 70, 90, -67, -7, -36, -49, -2, -46, 52, 61, 58, -32, 13, -71, -90, -22, 43, 90, 90, 6, 32, -24, -12, -47, 57, 14, 31, -89, 43, -101, -26, -73, -36, -96, -59, 41, 96, 24, -47, -30, -26, -26, -37, 48, -66, 44, 34, -40, -74, -93, 77, 42, 28, 57, -70, 6, 14, 62, 0, -56, 63, -11, 32, -86, -85, -14, 78, -22, -42, -38, -12, 74, -14, -32, 70, 24, -62, -73, 10, 0, -59, 90, 63, -16, 89, 61, -18, 104, 75, 9, -63, 19, -17, 95, -87, 54, 75, -39, -21, 11, -33, -58, 80},
  {18, -49, 3, 87, 4, -18, -16, 6, -80, -4, 7, 80, 70, -31, -41, -19, 52, -6, -86, -33, 56, 9, -103, 30, -34, -53, 6, 55, -87, 92, -38, -10, 75, -12, 69, -21, 78, 13, 88, 73, 29, 98, 47, -5, 60, -6, 73, 99, -77, 42, -57, -57, -43, 39, -91, 45, 44, 54, 87, -50, -77, -53, 38, 75, 12, 28, 6, 9, 31, -27, -24, 80, -21, 45, 44, -17, 76, -27, -34, -10, -84, -55, 100, 64, -102, -3, 30, -50, -25, 3, -71, -50, 81, -1, -37, -56, 81, 81, -62, 70, 69, -72, -9, 76, -38, 46, 25, 1, 62, -43, -84, -90, -104, 26, 41, -17, 28, 2, -7, -83, -111, -97, -53, -6, 89, -31, 2, 22},
  {47, -99, 48, 99, -8, -74, 45, -34, -63, 33, 67, 6, 0, 4, 67, 18, 63, 22, 52, 46, -63, 27, 27, -46, 58, -105, -77, 85, -22, -47, -30, -54, 35, 8, 65, -40, -58, 82, -68, -19, -21, -81, 62, 1, -11, 61, -60, 78, -55, 50, -81, -11, 54, 91, 44, 102, -49, 80, 32, -70, 56, 30, -65, -4, -68, 74, -58, -47, 3, 78, 89, 21, 64, 95, -106, -80, -42, 17, 67, 21, -58, -79, -19, -47, 25, -37, 2, -97, -25, 79, -20, -47, 76, -54, 65, 44, 99, 99, 80, 45, 1, -67, -38, -85, -68, -69, -4, 78, 0, -64, 10, 66, -78, -99, -53, -52, -99, 62, -90, -3, 2, -44, 58, 67, -78, 59, -93, -71},
  {54, 11, 0, -80, 66, -50, -21, -75, -33, -56, -52, 31, 12, -40, 6, -62, 69, 61, 88, -62, -19, -32, 10, -62, 14, -53, -43, -32, 41, -40, 24, -76, 109, -1, -23, 4, 49, 4, 30, -54, -57, -80, -35, 90, -19, -66, -33, -29, -46, -21, 78, -42, 78, 64, 96, 42, 92, -59, -71, -43, -13, -84, 55, 106, -75, -13, 67, -95, -69, 19, 97, -3, 60, 27, 69, 91, -97, -41, 51, -80, 58, 35, -68, 45, 92, -81, -85, 32, 73, -31, 107, -4, 72, 52, -52, 6, -5, -41, 42, 10, -58, -83, 50, 82, 74, -18, 56, -58, 23, 73, 56, 82, 2, 36, 58, 52, 105, -99, 93, -19, 74, -20, 10, -54, -46, 37, 31, 94},
  {-22, -113, -64, 44, -61, -93, -16, -12, 69, 49, 18, 63, -9, 90, 60, -32, 52, 26, 11, 24, 63, 46, -85, 75, 2, -93, 2, 5, -47, 4, 5, 23, -8, 52, -101, 24, 28, -2, 4, -79, 74, -79, 2, 43, 67, 98, -84, 50, -3, -5, 34, -39, 0, -62, -14, 93, -91, -55, 2, -78, 108, -100, 77, -48, 50, -43, 22, 66, -12, -4, -21, -39, -55, -15, -65, 6, -64, -59, 56, -65, 58, 29, 67, -38, 41, -71, -88, -51, 16, -95, -113, 97, 0, 79, -26, -83, -57, 46, -58, -11, 85, -28, 48, -55, -53, -7, -97, 17, -53, -16, -10, -90, -12, 5, 3, 66, 1, 54, -12, 54, -21, 93, -102, 5, 24, -8, 44, 86},
  {30, -64, 68, -60, 37, 5, 69, -27, 28, 64, 69, -34, 44, -88, 0, -94, 20, 81, -58, 65, 77, 47, 37, 36, 80, 95, 76, -3, -61, -65, 8, 6, 11, 98, -66, -11, 42, 1, 109, 35, 98, 18, 30, -30, 55, 0, 81, -19, 30, 83, 32, -3, -1, 2, -90, 62, 86, 78, 28, -16, -88, 101, -68, -52, -20, -20, 88, -62, 53, 0, -11, 51, -40, 6, 55, -73, 75, 70, -15, -19, 36, -28, 52, 80, 89, -8, 66, 59, -93, 48, 28, 29, 88, 56, 34, -66, 6, 69, 67, 74, -35, -52, -17, 81, 11, 56, 81, -81, -93, -44, 8, 6, 47, 16, -3, -63, 43, -60, 17, -74, 59, -97, 40, 16, -58, -39, 8, -40},
  {67, -22, -89, -22, -65, -33, -49, -23, -32, 64, -34, 38, -14, -94, 5, -77, -17, 73, 70, 82, 24, 8, 93, 4, 51, -69, -53, 92, 105, -51, 8, 19, 39, 119, -29, 0, 15, 77, 92, -13, -47, 39, -33, -77, 99, 8, -62, 85, 65, 68, 55, -87, -40, -20, -25, 72, 12, 70, 32, -67, -45, 51, -70, -22, 13, -46, 41, -62, -49, 45, -36, 68, -14, -73, 81, 37, 39, -60, 76, -56, 25, -114, -11, -45, -13, 65, -88, 3, -32, -40, 61, 1, 105, 3, -6, 83, -16, 69, -21, 94, 76, 63, 62, -66, -34, 18, 59, -30, 40, 25, 58, 28, -7, 40, 67, -50, -49, -103, -19, 7, -15, -59, 31, -33, 55, -5, -6, -44},
  {-66, 25, 18, -16, -39, 108, 74, -58, -42, 42, -37, 76, -28, 39, 20, -46, 5, -98, -98, -63, 28, -53, 58, -38, 96, -84, 41, -73, 8, 22, 47, -6, 71, -79, -22, 83, 54, -6, 43, 40, 7, 42, -63, -40, -94, 55, -76, 93, 55, -90, -58, 68, -51, -25, 101, 83, -16, 15, 54, 5, -55, -21, -39, 59, 23, 3, 65, -21, -51, -11, 65, -26, 24, 77, 11, 78, -73, 1, 62, -86, 8, 51, 87, -66, -2, 0, 64, -56, -36, 6, -64, -74, -95, 90, -92, 3, 88, -34, 11, -105, 20, 87, 31, -58, -93, -25, -39, 13, 32, -90, -82, 42, -68, -25, 23, 55, -98, 25, 76, 55, 28, -83, 14, 26, 44, -72, -44, 43},
  {-81, 93, -33, 70, 16, 12, 35, -25, -61, -55, -110, -23, 25, -23, -47, 32, -52, -43, -25, -70, -34, -67, 27, -25, -75, -86, 25, -32, 36, -67, 42, -24, 59, 67, 75, -1, -25, 45, 37, 10, 77, 32, -11, 68, 0, -62, -1, 45, -96, -55, 6, 86, 31, 72, -66, -79, -26, -13, -5, -30, 64, 27, -1, -43, -38, -32, 26, -35, -36, -72, -61, 31, -83, -44, -25, 55, 38, -83, 77, -76, -50, -22, 21, 33, -90, -8, -40, -55, -62, -61, -75, -76, 77, 94, -93, 67, -36, -11, 55, -27, 82, 37, 10, 30, -104, 2, 49, -5, 46, -1, 81, -29, -61, -91, 22, 24, 37, -28, 52, 13, -59, 15, 0, -21, 19, -84, 95, 35},
  {108, -41, -52, -14, 22, -30, 67, 79, 79, -43, -68, -58, -63, -90, 84, 6, 97, 45, 89, -30, 56, -59, -16, -10, -6, -72, -69, -46, 71, 39, 25, -24, 45, 85, 16, 31, 36, -58, 53, 53, 21, 109, 10, 71, 30, 0, -40, 14, 87, -33, -35, 52, 29, -21, -47, -26, 100, 37, 84, 73, -92, -21, -97, 34, 3, 76, 51, 17, 23, 23, -81, -37, 86, -41, -1, -81, 91, 41, 19, 59, 2, 10, 49, 14, 31, -1, 27, 55, -42, 71, -39, -74, -54, 53, 14, -9, -73, 64, -99, -63, -83, 54, -29, -18, 44, 82, -63, -64, 61, 103, 64, 109, 82, -11, 9, 4, 62, -63, -28, 95, 25, 69, 81, 90, 41, 8, 90, -46},
  {-7, 60, 4, 0, -89, -36, 87, -58, -80, 73, 13, 38, 8, 34, 22, -88, -24, 40, -65, -80, 67, 10, 96, -68, 52, 79, -2, 76, 6, 29, 82, -20, 31, 31, -91, 37, -89, -11, 4, 32, -77, -28, -24, -40, 7, -57, 86, -89, -92, 29, 50, 74, -54, 88, -100, -14, 12, -91, 36, 94, -16, 80, 39, 113, -71, -34, 87, 53, 38, -66, -72, 50, 29, 83, -87, -54, -77, -78, 22, -35, 72, 72, 34, -20, -27, -2, -12, -36, 78, 25, -53, 28, -79, -55, -62, 6, -94, -77, -36, -39, 6, -36, 77, 61, 29, 4, 11, 24, -67, -57, -49, 76, -72, 86, 106, -25, -66, 0, 1, 1, -106, 19, 91, -9, -60, 6, 101, -68},
  {-102, 64, -54, -43, 91, 119, -20, 70, -5, 39, 29, 58, -14, -26, -21, -38, -10, 70, 1, -18, 69, -57, 1, -63, 94, 87, -9, 99, 81, -9, 79, -47, -107, -19, -85, 66, 13, 68, -45, -11, 12, 71, 77, 85, 43, -43, -15, 56, 51, -67, -94, -29, -89, -28, -95, 17, 15, -2, -30, 72, -45, -42, 84, -7, 38, -121, 85, 2, -63, 11, 70, -89, -64, -57, 64, 70, -63, -18, 21, -61, -75, -25, 93, -1, 59, -80, -51, 20, 5, -39, 83, 36, -44, -51, -34, -23, 87, 15, 11, -21, -24, -17, -60, -73, -71, -42, -68, -4, -60, 16, 16, 26, 53, 49, -49, 92, 40, 46, 9, 60, 41, -85, -47, 60, -38, -14, 9, 55},
  {-16, 81, -15, 26, 12, 12, -50, 6, 19, -24, -45, -45, 6, 62, 71, -32, 19, -26, -37, -23, -58, -91, 102, -17, -55, -44, 83, -6, -33, -32, 34, -14, -3, 79, -53, 32, -87, 11, 62, 46, 51, 58, 3, 79, -31, 51, -47, -78, -62, -11, -20, 55, -7, -39, 17, -34, -26, 0, -67, -28, 83, -75, 11, 86, 50, 7, 99, -20, 17, 104, 22, -27, -21, -5, 35, -75, 57, -19, -89, 23, 52, -4, -41, 107, 72, 44, -48, 41, -81, -61, 30, 69, -45, -93, 67, -74, -92, -106, -63, 16, 20, 89, 63, 21, -58, -3, -18, -4, 45, 110, -49, -39, 115, 75, 18, 67, -21, -12, 32, 54, -26, -70, 32, 99, -25, -24, 101, 51},
  {15, -45, -62, -62, 48, -103, 51, 88, 70, 60, 52, 24, -19, 0, 60, -55, 59, 26, -77, 101, 39, -31, 12, 10, -24, 5, 36, 28, 95, 39, 95, -30, 33, -66, 36, 70, 37, 41, -6, 55, 87, 78, -56, -40, 56, 27, 72, 37, -9, 14, 27, -46, -64, 97, -26, -63, -74, 29, 69, -33, 48, 27, 0, 106, 42, 92, 8, 66, 92, -66, 73, 79, -22, -50, 53, 96, -8, -64, 16, 77, -8, -67, -40, 38, -35, 80, -78, -8, -3, 29, -30, -22, 19, -31, -56, -64, 80, -68, 41, 105, -18, 71, 41, 81, 56, -17, -24, -43, 46, -5, 10, 11, 22, 41, 91, 33, 94, 70, 84, -20, 51, 46, -36, 69, -38, -53, 76, 100},
  {-66, 64, 15, -66, -35, -63, -45, -53, 80, 86, 104, 41, 69, -85, 13, 54, 67, 27, 89, 83, 3, 18, 102, 22, 28, 28, -69, 81, 13, -19, 6, 70, -66, 54, -1, 88, 49, 44, -67, -12, -4, -27, -25, 47, -54, -23, -82, 20, 44, -10, 10, 59, 100, -8, -26, 56, 20, -7, -49, 84, -79, 104, -80, 88, 33, 45, 87, -9, -44, -27, 3, -56, 58, 87, -68, 70, 10, 21, -52, 94, -34, 32, -38, 87, 88, 93, -4, -87, -66, -45, 73, -3, 104, -72, 54, 64, 9, -90, -25, -62, -30, 20, 58, 40, 41, 89, 88, 103, -24, 101, 98, -38, 38, 102, 60, 33, 28, 51, 69, 76, 59, -78, -72, -79, -44, -83, 94, 54},
  {-94, 2, 47, -44, -57, -25, 36, 65, -93, -86, -8, 50, -90, -6, 71, 67, 86, -62, 76, -23, 96, -46, -50, 50, -4, -8, -75, -44, 8, 60, -74, 45, 86, 75, 57, 94, -26, -53, 42, -82, -21, 33, 37, -11, 32, 72, -13, 64, 46, -26, -73, -66, -77, 22, 58, 68, 49, -83, 20, -2, -41, -4, -72, -30, -6, -44, -20, 102, -18, 11, 89, 65, 41, -65, -60, 36, 79, -10, 84, 33, -64, -5, -80, 4, 56, 87, -37, 41, 58, 42, -52, 21, 12, 18, 54, 85, 104, 8, 97, -70, -23, 43, 62, -13, -37, -71, 77, -41, -55, -12, 98, 18, -5, -28, 4, 60, -2, 81, 23, -87, -4, -49, -89, -50, 85, -65, 26, 55},
  {-99, -26, -3, -49, -101, 22, 1, -21, 57, 55, 55, -98, 95, 100, 0, -57, 69, -30, -58, -76, -104, 49, 69, 52, 86, 28, -16, 71, -65, 24, -28, 17, -68, 62, -84, 85, -28, -10, -66, -64, -57, 0, -86, 87, -13, 89, 18, -3, 57, 12, 57, 18, -20, -85, 78, 43, -57, 24, -97, -84, -65, 56, 15, -29, 56, 3, 2, 80, -63, 20, 13, 66, 71, -1, -64, 10, 24, -49, -84, -32, -51, 21, 77, -28, 72, 59, 68, 50, -26, -45, -48, 96, 80, -1, 19, 79, -36, -31, 52, -39, -83, -61, 27, 10, -83, -26, -1, 64, -54, -93, -8, -5, 64, -6, -90, -82, -38, -20, 76, -65, 12, 51, 21, 70, 95, 0, -56, -33},
  {-94, -47, 32, -38, 46, -97, 62, -2, 93, 89, -42, 40, -83, 17, -9, -17, 54, 74, -8, 36, 0, -69, -63, 62, -1, -31, -14, -84, 82, 36, -102, -43, 86, -37, -71, -48, -44, -79, -87, 32, 21, -74, 83, 61, 1, -107, 93, 76, -78, -24, -12, -23, 83, 58, -80, 77, 37, -37, 115, 110, 90, 66, -83, -75, 2, -55, -41, -9, 37, -2, -84, 66, -2, -23, 92, -32, 48, 18, -26, -56, 110, -77, 57, -60, -3, -34, 17, 0, -25, 66, 66, 30, 79, 80, 27, 66, 23, 35, 16, 98, 69, 9, -24, 18, 43, 36, 15, -79, 89, 60, 2, -44, -29, 4, 44, -90, -31, -2, -16, -40, 111, 14, 67, -63, 37, -14, -46, 43},
  {90, -69, -48, 10, 83, 64, 92, -4, 60, 100, 98, 102, 19, -27, -18, -92, 13, -72, -53, -41, 18, 55, -61, 38, 78, -44, 84, -62, -46, -11, -78, 67, -88, 0, 73, 41, 86, 4, 40, -83, -54, 71, -36, 50, 77, 37, 5, 29, -33, -83, 35, 52, -60, 10, 13, -18, -73, -6, -61, 91, 97, -79, 69, -41, -17, -33, -81, 20, 16, -68, 54, 60, 50, 70, 105, 37, -49, 27, 72, -35, 94, 81, -96, 37, -24, 95, -113, -62, -87, -75, 97, 94, 113, -60, 36, -61, -73, -25, -44, 81, 56, 39, -4, 97, -37, 23, -5, -37, 3, -67, -15, -80, 68, 32, -29, 93, 111, 20, -41, 50, 17, -75, -62, 84, -55, -28, -22, 50},
  {-47, -60, -64, 77, -50, 22, -41, -35, 21, -50, -83, 6, 65, 63, -77, -6, -95, 37, 69, -85, -57, 28, 57, 10, 61, 28, -26, -84, -8, -57, -74, 96, -44, 29, 0, -22, 34, -78, 79, 95, -1, -44, -71, -88, 41, -1, -57, 12, -58, -15, -78, 26, 4, -90, 49, 41, -62, -84, -64, -71, 75, -96, 96, 10, -50, 54, -21, 67, 41, 3, 32, -117, 53, 8, -32, 3, -32, 0, 32, -88, 49, 58, -63, -112, 34, -18, 9, -102, 2, 59, 67, -78, -70, 26, -102, -35, 1, 100, -16, -46, 74, -20, -30, -41, 31, -41, -77, -15, 82, -19, -20, -73, -35, 60, -38, 26, 24, -82, 16, -86, -54, -15, 15, -7, -76, 65, -31, -24},
  {109, -15, 8, -65, 95, 70, 0, -18, 68, 59, 111, 27, -86, -85, 65, -53, -5, -14, 13, -51, -24, -14, 92, 0, 69, -17, -67, -25, -33, -9, 86, -10, 36, 77, 39, 93, -91, -98, 88, 74, 33, 18, -81, 58, 49, -97, -34, 17, -37, -85, 91, -98, -52, 16, 73, 7, -5, -48, -67, 58, 59, -37, -7, 56, -26, -91, 64, -23, 77, 52, -23, 125, -27, 24, -77, 40, 18, 11, 87, -39, 108, -52, 48, 124, 86, 30, -38, 83, -84, 100, 75, 23, 52, 44, 19, 3, -34, 11, 84, 115, 76, -22, -31, -67, 26, -88, -65, -62, 34, 92, -43, 6, -2, -59, 100, 102, 114, -68, -30, -76, 5, 78, -64, 42, -52, -71, -1, 64},
  {59, -102, -49, 59, -19, -22, 57, -82, -84, 65, -109, 27, -29, -44, -65, -44, -19, -40, -93, -26, -47, 66, 23, -29, 42, 31, 47, -5, 42, 69, -62, 56, 35, 20, -31, -12, 84, -34, -90, -76, 11, -51, 33, 14, 13, -50, -25, -31, 12, -45, 75, 95, -24, 28, -31, -28, -4, -73, -59, 32, 32, 34, 34, -62, 42, -57, 88, -26, -92, -70, 64, 39, -60, -57, -94, -29, -7, 3, 100, -8, -101, -51, -54, -75, -22, 52, -22, 56, 34, -79, -79, -48, 15, 5, -48, 105, -87, 90, -27, -102, 41, -52, 53, -69, -32, 46, 16, 57, -38, 25, 48, -70, -29, 44, -83, 13, -87, 13, -26, 36, 34, -80, -3, -44, -91, 37, -86, -15},
  {-25, 87, 94, 17, 31, -75, -11, -41, 38, -91, 33, 92, -34, -24, -11, -25, -58, -34, -17, 10, 46, -15, 12, -58, -93, 3, -90, 17, -91, 13, -29, 68, -1, -13, -10, 66, 60, 66, 54, 49, 69, -15, -50, 18, -36, 4, 45, 80, -91, -75, -36, -23, 103, 90, 88, -75, -68, 89, -19, -51, -61, -88, 98, -2, -87, -11, -4, 23, 27, -89, 1, -41, 26, -8, -37, -40, 80, -65, -26, 93, 52, -10, 20, -4, 77, 56, 75, 82, -29, 83, -16, -7, -76, 91, -95, 98, -65, -72, -28, 59, 26, -78, 0, -86, -36, 85, -40, 1, 64, -72, -61, -55, 50, 10, -21, 81, -97, 100, 73, 39, 97, 2, 2, -45, -45, -5, 46, -76},
  {-8, 42, 100, 68, 113, 50, 21, -46, 75, 76, 51, -29, 1, 49, 18, -60, -33, -66, -59, 92, 42, -113, -17, 89, 14, 106, 44, 16, 41, -9, 66, -59, 1, 46, -40, -16, -18, -80, 53, -80, -56, -46, -68, -75, -49, -46, 102, -53, 98, 96, 17, -111, 25, -15, -5, 85, -43, 23, -40, -29, -39, -23, -39, -9, -76, 14, 0, -55, -65, 42, 74, 30, 41, -71, -12, 55, -46, 31, 55, -59, 65, 13, -32, 113, -6, 1, -9, 1, 50, 36, -64, 70, 64, -91, -27, -86, -13, 45, -37, 90, -59, 80, 52, -8, 91, -80, -39, -12, 19, -69, 110, 8, 114, 16, 42, -19, 23, -34, -16, 52, -95, 20, 46, 44, 74, -57, 80, -107},
  {85, -49, -67, -93, 44, -69, 53, -87, -40, 20, 28, 103, -76, -22, 21, 12, 49, 70, 85, -30, 100, 76, -60, 53, 34, -39, -70, 33, 37, -89, 87, 48, -45, 22, 11, -24, -53, -50, -70, 41, 68, -33, 9, 78, 75, -71, 105, 81, 31, -67, 6, -12, -39, -17, -45, -32, -55, 24, -27, 103, -11, 20, 4, 109, -36, -73, 101, -52, -39, 68, 45, 28, -37, -90, -43, 34, 58, -76, 83, 17, -72, -36, 74, 23, 65, 0, -6, 35, 47, 63, 37, 56, 84, -100, 38, 83, 69, 81, -79, -21, 44, -70, 91, 0, -11, -69, -81, 47, -77, 80, 75, 108, 94, 54, -29, -3, 95, 46, -76, -79, 73, -25, -48, 28, -10, -9, -15, -84},
  {46, -60, -26, 53, -72, -80, 43, 15, -16, 72, 48, 56, -85, 43, -38, 96, 33, 3, 29, 56, -63, 75, 88, -95, 0, 25, 85, 64, -88, 9, -31, -52, 90, 98, 53, 46, 63, -62, 91, 13, 70, 43, 30, 26, 40, -71, 34, 4, 24, 30, -97, 91, -85, 63, -72, -73, 56, 87, 30, 57, -96, 33, -11, -103, 44, -72, 9, 7, 53, 70, -18, 52, 5, 18, 57, -47, -78, 42, 63, 9, -57, 25, 72, -49, 106, 0, 21, -56, 71, -20, -5, -91, -71, 6, -48, -20, -26, 80, 86, 8, -26, 74, -73, -64, 59, -42, 16, -36, 76, 34, 18, -84, 45, 39, -90, 24, -39, -14, -53, -14, 60, 46, 31, 22, -12, -25, 39, 21},
  {-99, -34, 19, 22, 38, -58, 43, -90, 71, -78, -14, -47, -15, -91, -8, -54, -13, 4, -46, -21, 66, -29, 32, -51, 86, 77, 91, -52, -48, -91, 26, 64, -22, 54, 39, -37, -20, 46, 71, 94, 18, -17, 99, 17, -12, 19, 11, -14, 41, 88, -86, 0, 85, -7, 30, -15, 95, -51, -15, -59, -3, -63, 57, 86, 16, 14, 6, 0, -64, -94, -25, 13, 21, 88, -40, 22, -9, -88, 83, 7, -71, 90, -17, -39, -78, -7, 41, 48, 20, 50, -47, -94, -78, 73, 0, 46, 92, -75, -60, -40, -5, 27, 64, -46, 61, -30, 73, -71, 27, 82, -31, -50, 25, -78, 14, -37, -26, 73, -18, 104, -55, -58, -60, -50, 44, 6, -10, 27},
  {89, 12, 48, -33, -65, -72, -43, 5, 94, 72, -46, 101, -88, -26, -55, -87, 57, 120, 59, -33, 71, -77, -85, -23, -18, 26, 75, 1, -33, -69, -30, -46, 0, -12, 34, -68, -77, 25, -77, -75, -20, -22, 74, 87, -23, -72, -26, 48, -59, -7, 22, -6, 92, -83, 19, -25, -45, 0, -31, 89, 48, -65, -91, 50, 2, 30, 107, -103, -28, -48, -53, 6, 1, -73, 16, 84, 69, 75, -39, -9, -72, -9, 50, 7, 36, 98, -7, 28, -36, -5, -27, -89, -18, 7, 3, 18, -62, -15, -54, -50, 60, -37, 57, 0, 107, 9, -75, -9, 63, 98, -24, 114, -50, 119, 28, 68, -60, 19, 97, 2, -56, -18, 83, -39, 81, 27, -52, 63},
  {-70, 6, 86, -44, 36, 64, 66, 1, 94, -9, -18, 72, 77, 51, -43, -74, -10, 114, -43, -31, 89, 0, 23, 41, 76, -46, -89, 16, 27, 68, -80, 3, 9, 8, -11, 21, 61, 75, -49, -48, 109, 101, -75, 11, 34, 48, 84, 91, 5, 50, -9, -85, -30, -48, 67, -18, -37, 76, 40, 16, 90, 59, -85, -42, -67, 35, 35, -105, -48, 88, -16, -54, -12, 52, 70, -51, 77, 2, -94, -8, -28, -73, -100, 60, -47, 96, -46, -18, 11, 18, -15, -43, -73, -79, -41, -3, -89, 68, 4, -3, -49, 32, 35, 10, 9, -78, 36, 71, 37, 29, 119, -68, 49, 50, 29, -27, -68, -28, 54, -28, 62, -11, 11, -10, 81, 63, 38, -57},
  {-47, -70, 98, -106, 7, 12, 0, -28, -98, 90, -51, -90, 86, -37, -69, -25, -82, 67, 75, 80, -66, -46, 31, -60, -74, 88, 21, -95, 37, 19, 43, -109, -73, -29, -2, -1, -49, -65, 13, 0, 77, -63, -98, -1, 100, -79, -70, 46, -54, 81, -55, -48, 82, -23, 69, 51, 85, -15, 2, 47, -79, 35, 33, 93, 10, 38, 0, -69, 5, -22, -80, 0, -34, -63, 8, -35, -74, 64, 37, -75, -25, 5, -4, 8, -19, 46, 67, -33, 32, 65, 64, -15, -56, 33, 63, -93, 64, -88, 75, -85, 99, 65, 28, -9, -59, 49, 92, 44, 26, 57, 25, -78, -37, 74, 32, 91, -5, 53, 0, 0, 54, 77, 67, 45, 64, 4, 75, 52},
  {-9, 85, -74, -21, -84, -37, -75, 39, 33, -29, 42, -53, 79, -80, 66, -50, -36, -34, 43, -54, 23, -31, 53, 69, -80, 41, -62, -17, 56, -40, -22, 18, -55, -48, -3, -58, 4, -52, 58, 3, -18, 75, -47, -5, 44, 3, -11, 19, -21, 49, 83, -40, -50, 18, 6, -23, -15, 58, 6, -90, -59, -59, -33, -99, 98, -97, 33, -44, 21, -56, -49, -2, -32, -23, -85, -19, -76, -50, -26, -46, 60, 27, -2, -50, -2, 76, 38, -16, 77, 7, 41, 73, -44, 9, 8, 0, 4, -30, -40, 51, -84, -67, -105, -7, -3, 18, -43, -63, 30, -55, -34, 38, 26, 30, -93, 36, 0, -22, 87, 76, 58, -8, -20, 85, 41, -81, 59, -76},
  {-79, 91, -54, 77, -11, -81, 41, -64, -84, -10, -30, -91, -49, -47, 41, -72, -40, -58, -3, 6, 105, 76, -24, 64, 91, 71, -74, 71, -31, -54, 26, 45, -81, -8, 56, 74, -94, -46, 40, 54, -28, 43, 0, -75, -57, -61, 16, -9, 21, -101, -32, -86, -42, 96, 83, -74, -95, 9, 69, -46, -27, 71, -48, 52, 16, -37, -3, -24, -18, -68, -66, 39, 91, -60, 66, -66, -47, -62, 76, 92, -51, -18, -44, 62, 52, -3, -60, 99, 88, -38, 74, 97, -80, -47, 86, 59, -21, 54, 71, -44, -55, 86, 104, 26, 65, -28, -70, 76, 72, 74, 82, 62, 99, 50, -50, -10, -57, -110, -25, -50, 36, -7, 93, 62, -66, -40, -42, 10},
  {63, -94, -78, 107, 31, 93, 15, 87, -49, -77, -65, 10, 10, -13, 101, -38, 80, -4, 43, -32, -96, 29, -75, -54, 18, -90, -73, 22, -50, -14, 70, 92, -29, -5, 20, 70, 17, 0, -79, 56, -39, -59, 85, 18, -30, -1, -66, 36, -61, 66, 13, 10, 74, -62, 13, 76, -21, -86, -59, 13, 42, -80, -50, -40, 56, -68, 50, 22, 10, -87, 72, 63, -58, 95, -96, -15, -42, 33, 99, -67, -43, -36, 1, 52, -16, 104, 57, 72, 100, -12, 79, -73, 44, 28, -91, 54, 5, 59, 48, -3, -94, -44, -81, -29, -81, -12, -67, -16, 105, 20, 9, -76, 51, 8, -72, 94, 64, -54, -77, -87, -24, -21, 4, -56, 17, 8, 58, -56},
  {-27, 108, -30, 91, -29, -88, 67, 48, 99, 91, -36, 43, -10, 40, 8, 13, -41, 30, 16, 13, 104, 15, 41, -63, 44, -13, 44, 38, 10, -46, -51, 13, 11, 48, 23, 75, 38, 13, 14, -61, 85, -8, -15, -14, 43, -47, -8, 76, 87, 83, -58, 31, 33, -70, -5, -9, 64, -74, 12, 105, -98, 97, 24, 52, 72, -43, -71, 17, 49, 110, -30, -17, -73, -98, 88, 86, -24, -54, 70, -70, -6, -93, -35, 23, 66, 94, -47, 18, 84, -37, -29, 12, 56, -12, -35, 63, -50, -53, -90, -49, -17, 32, 65, -24, -42, 32, 2, -34, -33, 97, 40, 91, 53, 9, 35, -65, 95, 48, -60, -46, -17, -60, -16, -58, 49, -31, 109, -72},
  {-12, -77, -27, -64, 15, -68, -78, -61, 41, 11, 0, 80, -28, 46, 63, -49, -18, 65, -52, -2, -59, -12, -68, -86, -57, 66, 0, -21, 0, -7, 83, -41, -13, 34, 75, 23, 80, -52, -104, -32, -70, 28, 89, -45, 85, 11, -7, -94, -70, -74, 5, -83, -28, 91, -33, 27, 67, -92, 19, -35, 11, 21, 78, 4, 67, -82, 26, 34, -2, 58, -70, -49, 86, 4, 2, 39, -7, -16, -62, -27, -49, 89, 61, -17, 22, -45, 60, -85, 21, 51, -102, -43, -56, -4, 99, -81, 93, -82, 65, 52, -20, -59, -75, -4, -98, -12, -56, -28, -67, -21, -9, 82, -69, 31, -65, -44, -45, 92, 84, -5, -5, 56, -68, -68, -7, 56, -72, -20},
  {-17, 29, -2, 19, 60, -67, 5, 67, 96, 48, 114, 66, -5, 7, 104, 91, -58, -16, -54, -7, 31, -47, -27, 71, 83, 85, -4, -98, -21, 9, -57, -8, 114, 56, -40, 10, 48, 62, -53, 13, 15, 5, -20, -22, -42, 61, 113, 21, -36, -22, -35, -26, -42, 76, -55, 8, 54, -38, 75, -10, -40, 0, -24, 26, 29, -61, -57, 54, 31, 29, 13, 60, 56, -58, 73, -27, -28, 79, 46, 45, 72, -113, -33, 77, 46, 12, -54, 17, 45, 77, 14, -46, -9, -108, 45, 58, 6, 48, 59, -63, -29, 67, -31, -64, -43, -61, 13, 30, -34, 74, 84, -60, -34, -6, 107, -24, 79, -47, -68, 48, -85, -71, 94, 38, 0, -8, 85, -59},
  {-28, 70, 18, 9, -80, 26, -58, 91, 56, -90, 55, -88, -43, 61, -74, -28, -45, 31, 82, 40, -97, -41, 50, 60, -93, 60, -47, -78, -63, -43, -99, 114, -49, 79, 62, -30, -37, 1, 67, 8, -15, -78, -2, -83, -88, 36, -25, 10, 57, -11, 10, -50, 0, 54, 84, 57, 0, 65, 43, 63, -22, -79, 21, -24, 62, 78, -85, 55, -52, 42, -46, 76, -17, -34, -12, 79, -90, 67, 79, -32, -76, 26, 54, -40, 77, -84, 36, -63, 22, -13, 32, -61, 37, -66, 38, -91, -20, 49, 96, 8, 55, 86, 74, -20, -40, -60, -16, -66, -84, 72, 66, -50, -39, 21, 28, -34, -94, 106, 5, 90, -42, -80, 45, -36, -59, -52, -100, 13},
  {-49, -15, 28, -48, -77, 11, 10, -14, 31, 101, -47, -31, -64, 49, -45, 53, -64, 16, 27, -25, 20, -94, -47, -18, -43, 13, 102, -53, -33, 47, 43, 8, -18, 28, 44, -56, -9, 24, -80, 5, 72, 75, -50, 76, 40, -40, 8, -54, 50, -23, -87, 38, -48, -74, -61, -42, -48, 18, 13, 53, 76, 16, -35, -42, 86, 64, -67, -42, 35, 105, -12, 98, -1, -45, -17, -69, 110, -91, -55, 62, 41, 52, -2, -46, -16, -50, 38, 23, -42, -32, 51, -38, 95, -1, -71, -13, -46, 51, 25, -5, -15, -33, -61, -31, -79, 17, 33, 73, 40, 33, 93, -62, -52, 49, 109, 97, -28, 59, 43, 50, 10, -43, 19, -56, 69, 73, 9, -36},
  {34, -101, -81, -3, -47, 39, -71, 80, -78, -54, 12, 86, 7, 48, -6, -90, -87, -78, 36, 35, -84, -61, -16, -6, -58, -84, -44, 4, -95, 78, 37, 44, -46, 70, 70, -11, 95, -13, 69, 35, 42, 13, -16, -5, 20, 88, -1, 76, 61, 46, -75, 39, 3, 54, 96, -90, 18, 2, -72, -33, 53, 72, 61, 16, 49, -21, -46, -53, -111, -54, 96, 18, 38, -28, -38, -98, 84, 65, 59, -34, -99, -50, -44, 2, 10, -44, -68, -81, 6, -28, 80, 38, 25, -24, -115, 25, 68, -20, 4, 24, 24, -72, 25, -26, -30, -34, -37, 69, 29, -23, 11, -49, -13, -3, -116, 9, 5, -47, -32, -26, -17, 15, -30, -97, 30, 71, -7, 94},
  {16, 118, 87, -3, -46, 0, 98, 67, 85, 53, 27, 0, 40, -108, -50, 42, 82, 123, 0, -68, -55, 1, -8, -2, 53, -14, -14, 16, 39, -74, 35, -30, 27, 31, -3, 56, -95, -20, -31, 19, 71, -60, -76, 103, -22, 38, 49, 32, 22, 0, 40, -74, -59, 62, -11, -54, 44, -34, -61, 93, -47, 83, 5, -16, 9, 72, 52, -44, 2, -77, -88, -19, -78, -91, 83, -78, 91, -77, -92, 83, 67, 0, 58, 100, 70, -11, 1, 100, -10, 17, -32, 13, -25, 40, 69, 55, -38, -63, 10, 63, 75, 65, 12, 7, -17, 7, 14, -16, 16, 97, 37, 98, 38, 95, 54, -9, -52, -102, 79, -81, 31, 50, -22, 88, 31, -62, 49, -13},
  {23, 100, -52, 70, -33, 4, 52, -78, 30, -84, -44, 91, -71, -54, -74, 2, -13, -23, 23, -51, 26, -61, 64, 82, 76, -5, -32, 13, -57, -76, 80, 45, 106, 13, -6, 0, -20, 81, -62, -17, -26, 108, -32, 80, -31, -49, 72, -26, 76, 4, 40, -46, 89, -50, 45, -18, 10, -10, -61, -93, 70, 4, -59, -34, -2, -21, 98, 76, -38, -32, 15, 21, 40, -63, 46, 44, 57, -86, 3, -67, 82, -1, -54, 121, -14, -4, 0, 90, -80, 3, 2, -69, 107, 30, -64, 58, -33, 51, 1, 47, 34, -82, 76, 13, -54, -96, -73, -34, 16, 69, -19, 34, -34, -5, 32, 77, 73, -46, 92, 24, 36, 83, 70, 47, 20, 102, 51, -93},
  {-36, 88, -71, 75, 96, 46, -43, 23, 58, -18, -63, 24, -99, -68, 61, -57, -68, 29, -4, -51, 8, -21, 97, 4, -89, -38, 10, 23, -9, -39, -74, 24, 23, 12, -71, 57, -104, 22, 75, 29, 57, -8, -5, -39, 54, 80, 96, -47, 71, 47, -89, 41, 8, -16, -80, 71, 75, -51, -12, -17, -96, -27, -86, 14, -62, 12, 89, -66, 78, -70, 35, -48, 88, -72, 11, 57, -1, 30, 25, 86, 84, -85, 12, -65, 15, -21, -65, -30, 27, 73, 65, -60, -58, -61, 1, 62, -68, 72, -85, 60, -54, 8, -46, -39, 83, -26, 55, -13, -73, 8, 54, 70, 42, 32, 9, -3, 61, 15, -50, -31, 58, -62, 117, -3, -12, 51, 89, -88},
  {21, 2, 28, -7, -37, -75, 38, 52, -26, -27, -2, 66, -35, 55, 9, -75, -76, -42, 99, 65, -37, -35, -52, 87, -49, 14, 39, -34, 98, -86, -6, -102, -51, -54, -60, -75, -24, -32, 99, -29, 38, 38, 79, 46, -43, 20, 15, 53, 33, -75, -2, -109, -9, -60, -21, -44, -67, -73, -51, 42, -15, 42, -97, 4, -97, -21, 6, -72, -75, 82, 83, 31, -6, -41, 7, -24, -77, -63, -6, 24, 90, -2, 87, 61, 77, 86, 71, 16, -5, -4, -62, 11, 94, 8, -27, -13, 79, 1, -103, 35, 50, -89, 97, 67, -2, 44, -29, 30, -31, 74, 11, 83, -57, -10, -67, 70, 7, -102, 18, -35, 63, -29, -40, 74, -80, 43, 61, 56},
  {-66, -54, -78, -24, 69, -40, -32, 8, -36, -77, -31, -1, -34, -69, -27, -69, -59, 79, -26, -46, -4, -36, 78, 101, 97, 13, 94, -62, -65, -2, -64, -30, -85, -82, -43, -14, 31, -63, -31, 48, -38, 73, 71, 17, 7, -41, 45, -90, 37, 45, -43, -82, 59, 103, 63, -36, 104, 68, -72, 93, 34, -21, 74, -71, -14, -53, -46, 40, 61, 1, 19, 10, -29, -16, -23, 49, 66, -89, 20, 32, 3, -95, 29, -48, 70, -90, 59, -71, -35, -21, 76, -21, 26, -92, -6, 27, -63, -75, -72, -7, 48, -96, -17, -62, 18, -106, 40, -72, -72, -12, 8, 47, -48, 28, -68, 73, 60, -52, -46, 54, -5, -71, -56, -62, -5, 45, 75, -20},
  {29, -41, 5, -7, -25, -46, 24, 84, -18, 81, -21, 1, -22, -55, -28, 47, -43, 73, 13, 82, 59, -98, -11, 15, 26, -82, 68, -56, -57, 27, 41, -86, -63, -22, -17, -85, -88, 90, -75, -86, 99, -8, 45, 64, 61, 12, 99, 69, 60, 90, -14, -39, -88, 65, 26, -37, 23, -11, -8, -79, -51, 28, -36, 75, -81, -49, 57, -60, -31, 1, -3, 73, -72, -45, -84, -28, 74, 29, -52, 92, -12, 24, 34, 61, 60, 88, 49, 27, -76, 39, 48, 86, 33, 62, 34, 5, -85, -7, -21, 14, 28, 11, 112, 9, -4, 4, 33, -55, -45, -54, 7, -43, 41, -12, -54, -24, 16, 23, 93, 19, -96, -25, 43, 82, 92, 32, -24, 33},
  {99, 76, 80, -99, 6, -75, -34, -39, -70, 31, 79, 45, -41, -22, 72, 6, 76, 52, -21, -22, 35, 76, 60, -27, 80, 22, 49, 29, -41, -93, -89, -62, 40, -44, -75, -27, -103, -73, 34, -21, 9, -24, 96, -81, -51, 5, -27, 8, -30, -89, -13, 8, -41, 13, -71, -47, -26, 41, 78, -7, 25, 19, -82, 103, -59, 41, 71, -4, 55, 79, -77, 1, 68, -4, 73, 21, 12, 17, 3, -5, -11, 76, -88, 18, -25, 53, -30, 64, 27, -50, 33, -50, -39, 17, 65, -30, -44, -53, -47, 66, -60, 11, 38, 97, -67, 61, -34, -43, 3, -60, -13, 36, -85, -80, -45, 2, 86, 12, 60, 6, -63, 51, -22, -32, -8, -46, -66, -41},
  {-110, 5, -90, -72, 72, -56, -52, 6, 8, 88, 0, 4, 14, -54, 61, -34, -31, 7, -48, -21, -72, 73, 74, 24, -21, 53, -100, -43, 42, 72, -16, 98, 65, -91, -23, -4, 34, 39, -55, -78, -15, -69, 72, 72, -54, -3, 54, 61, -56, -75, 71, -13, -18, 72, 24, 6, -29, -3, 80, -12, -19, -30, 16, -65, -50, 18, 23, 2, 70, 6, 2, -103, 38, 33, 16, 45, 51, 113, 22, -50, -41, -7, 91, 62, -52, -96, 95, -68, -68, -2, 5, -67, -90, -17, 42, -4, 75, -39, -32, -108, -61, -14, -43, 20, -93, -97, 77, -68, -19, -47, -42, -67, 55, 5, -74, 13, -75, 27, 17, -25, -27, 89, -108, -101, 92, 58, 63, -81},
  {-13, -15, -14, 14, -81, 100, 29, -66, 14, 83, -26, 56, 19, 54, 9, 91, -34, -78, -46, 54, 61, 59, -27, 68, -84, 50, 38, -20, -87, 57, -23, -76, -36, -74, -17, 6, 59, 12, -33, 1, -92, -37, 53, -110, -44, 40, -45, -76, -28, -7, 91, -18, -55, -3, 40, -36, -23, 49, 50, -33, -18, -49, -54, 37, -21, -74, -52, -43, -9, -34, -48, -98, 63, 35, 74, 7, 2, -47, -4, -68, -68, -53, 18, 4, 67, -94, 43, -53, 37, -74, 63, 47, -72, -85, 10, -69, 106, -5, 17, -41, 62, 54, -65, 89, 66, 24, 62, -51, 19, -65, -8, -65, -15, -10, 8, 68, 48, -50, -65, 66, -8, -31, -89, -54, 16, -20, 91, -34},
  {53, -13, 101, 22, 72, 46, 43, 36, -69, 82, 72, 40, -74, 16, -68, -81, -36, -101, 39, 18, 23, 9, 18, -54, -74, -102, 78, 85, -45, -47, -39, 3, 58, 11, -63, 44, 16, -44, 50, 32, -28, -59, -59, -71, -28, -9, -82, 32, 33, -17, 20, 101, 44, 29, 2, -21, 26, -23, 89, 51, 91, 0, -58, -47, 6, 96, 5, 93, -90, -38, -43, -77, 69, 40, -101, 77, -70, 88, -6, 40, 27, 84, -22, -50, -94, -54, -7, -21, -6, 79, -44, 65, -35, 23, 10, -15, 96, 23, 100, 11, 16, -11, -114, -23, 60, 66, 73, 58, 6, 53, -59, 5, 10, -112, 68, 16, 45, -63, 84, 14, -4, -84, 0, -39, -26, 74, -61, 103},
  {32, -78, 90, -31, 32, 39, 43, -37, 19, 12, -105, 13, 106, 21, -64, 28, -106, 31, -61, -9, 69, 19, -2, -45, -80, 0, -98, 86, -62, -3, 52, -41, -48, 20, 90, -14, 106, -38, 11, -9, -107, -78, 58, -26, 58, 32, 33, 72, 78, -80, -25, -69, 4, 52, 47, 32, 55, 9, -17, 40, -66, -38, -56, -11, -85, 11, 70, -78, -23, -73, -66, 13, 46, -53, -15, 78, 91, -1, -35, 64, -99, -59, -86, 10, -15, -54, -5, 1, 9, 88, -85, 85, -100, 17, 2, 75, 90, 89, 51, -18, -41, -32, -14, 86, 54, 61, -15, -84, 8, 62, -7, -36, -55, -8, 19, 39, -64, 67, 16, -52, 85, -67, -1, -59, -35, 19, 28, -56},
  {-76, -7, -35, -30, -23, 16, -68, 86, 67, -59, 8, 91, 56, -8, 57, 65, -36, -93, 68, 12, -87, -75, -19, -65, -6, -54, 48, 103, 46, -26, 67, -5, -95, 1, -42, -18, -43, 100, -44, -4, 76, -85, -58, -41, 9, 91, -14, 47, 31, -24, 0, 72, -83, -1, -50, 16, -14, 78, -12, 63, 97, -75, 93, 15, 94, 77, -46, 47, -31, 9, -26, 39, 86, 52, -61, -90, 0, -27, 39, 24, 24, 106, 0, -29, -30, 20, 49, -83, -81, 61, 67, -62, -40, 88, 74, 66, -67, 29, -69, -90, -32, 21, -53, 34, 29, -69, -76, -18, -28, -94, 35, 10, 12, -67, 24, 11, -80, 44, -28, 34, 83, -90, 24, 53, 66, 11, -79, -84},
  {9, 61, -69, -85, 56, 103, -67, 40, 50, -14, -109, -52, 10, 0, -92, 3, -67, 34, -66, -50, -98, -52, -27, 13, 92, 38, 62, 3, -29, -2, 18, -24, -3, -85, 6, 38, 47, 110, -68, 4, -7, 58, -39, 46, -7, 91, -66, 36, 54, 41, 36, 23, -27, -64, 2, 81, -78, 37, 66, -8, 54, 10, 25, -102, 78, 0, -95, -18, 4, 17, 42, -83, -19, 14, 79, -92, 36, -2, -63, -14, 65, 9, 58, -37, 83, -1, 3, -15, 89, -55, 17, -67, 60, 49, 71, -55, 94, 3, 85, 41, -13, -12, 12, 39, 50, 7, -92, -106, 11, 17, 12, -105, 59, 17, -38, -94, -38, 14, -92, -40, 18, 39, -42, 76, -55, -78, 0, 85}
};

// fc2 bias: 64
const int8_t fc2_bias[64] PROGMEM = {
  4, 38, -13, 17, 42, 27, 34, 11, 13, 26, -39, 55, -51, -15, -40, -42, 9, 2, 54, -15, -17, 12, 80, -21, 29, -4, -9, 0, 17, 24, 39, 11, 6, -6, 21, 0, -8, -22, -26, -10, -10, 3, -16, -7, 43, 0, 1, 47, 29, -2, -25, -1, -127, -61, 1, 64, 78, -4, 25, -11, 28, 21, -17, 61
};

// fc3 weights: 32 x 64
const int8_t fc3_weight[32][64] PROGMEM = {
  {54, 66, 53, 55, 2, -80, -77, -17, 69, 14, -37, 20, 30, -86, -74, -110, -57, 60, -20, 22, 72, -55, -94, 40, -30, 40, 90, 56, -5, 79, -28, 57, -50, -50, -80, -68, 8, -73, 33, 97, -31, -103, -81, 44, -65, 16, -16, -1, 26, -82, 77, -113, -34, -100, -99, 67, 43, -106, -15, 37, 3, 63, -32, -63},
  {94, -38, 10, 16, -32, -9, -46, 94, -36, -33, 77, 74, 97, 77, -18, 0, 71, -51, 4, 28, -63, 73, -13, -49, 71, 0, 28, 66, 1, 38, -41, -98, 65, -62, -13, 44, -36, -82, -74, 66, -60, 24, -16, 89, -59, 77, 13, 58, 50, 101, -66, 114, 93, 13, -3, 41, -59, 65, -83, 20, -7, 47, -29, 61},
  {-36, 1, 98, -45, 69, 75, 52, 0, 102, -25, 79, 79, -19, 22, -72, 95, -83, -10, 93, -95, 11, 30, 45, 88, 46, 26, 37, 42, -35, 7, -20, -64, 98, 17, 40, -45, 9, 91, 0, 22, 104, -41, -75, -36, -69, 27, -24, 71, -52, -50, -25, 106, -15, 23, 56, -61, 46, 99, -3, 63, 70, 10, -70, 7},
  {-80, -10, 35, 13, 82, 18, 50, 2, 42, 85, -72, 112, -35, -53, -27, -49, 31, 41, 84, -27, 44, 62, 70, 84, 101, 32, -71, 7, -49, -52, 18, -29, -50, -77, -81, 94, 95, -35, 4, 49, -20, -29, -3, -2, 60, 68, 37, 82, -40, 95, 25, 14, 23, 70, 42, -12, 108, 29, 36, -22, -36, 56, 66, 25},
  {-82, -22, 115, 15, 116, -65, -24, 11, 69, 100, -14, -23, 94, 13, 80, 51, -54, 7, 52, -67, -27, 104, 16, 29, 77, -5, 16, -23, -22, 69, 68, -35, 44, 18, 76, 110, -2, 55, 72, -73, -53, -66, -73, 93, 69, 105, 28, 88, -77, 49, 51, 65, 125, 72, 14, 80, -7, -76, -97, -28, -24, -41, -22, -2},
  {27, 12, -18, -5, 38, -77, 89, -112, 0, -27, -108, 21, -10, -31, 62, 22, -21, -67, -98, 13, 67, -53, -96, 60, 8, -74, 83, 16, 30, 38, 7, 46, 3, 92, -94, 16, 37, 48, -13, 70, 23, 68, 43, -38, 65, -8, 25, 65, -37, -22, -17, 52, -27, 85, 83, -68, 5, -57, -56, -58, 77, 27, 53, -41},
  {-48, 72, 15, -95, -102, -74, -51, 12, -3, -44, 11, -70, 42, 37, 66, -53, -16, -68, 10, -41, 36, -20, 61, 36, -3, -88, -46, 85, 40, 50, 65, 43, 10, 90, 23, -108, 45, -65, -11, -101, -65, 70, 49, -8, -61, 23, 95, -80, 77, -98, 22, 50, -9, -38, -8, 19, -94, -18, -30, 46, 63, 11, -8, 75},
  {41, -49, 62, -38, -86, -72, -101, -22, -30, -27, -54, 19, 57, 68, -42, 81, 26, -2, 34, 53, 38, -92, -108, -35, 33, 72, -10, 31, 48, -38, 60, -64, 26, -58, -60, 22, -87, -2, 11, -94, -1, -25, -4, -17, -75, -33, 84, 60, -4, 21, 70, 40, 33, -45, -33, 78, 5, 65, 23, -22, 98, 11, -78, -43},
  {-92, 10, 10, 59, -37, 77, -32, -19, -68, -56, 5, -27, -58, 96, 20, -86, -30, 46, -73, 91, -49, -57, 19, 75, -92, -69, -20, -77, 44, 70, 60, 43, 62, -64, -27, -70, -7, 63, 81, -50, 43, 33, -20, 79, -79, 3, -11, -93, -28, -95, 44, -48, -25, 24, -23, 7, 6, 80, 85, 17, -82, -65, -68, 27},
  {38, -26, 49, 41, 11, 80, 56, 13, -70, 82, 39, -74, -102, -83, -82, -20, 29, -87, -97, -62, -46, 39, 91, 9, -73, -86, -48, 14, 4, -64, -19, -40, 68, 44, -26, 39, 16, -21, -40, 40, -8, 56, 67, -29, 0, 6, -71, -46, 46, 6, -24, -92, -14, -49, -90, -41, -82, 0, -26, 75, -74, 65, 113, 75},
  {96, -69, 78, -101, -63, -6, 62, 30, 73, -85, -81, -63, -94, 29, 28, -33, -78, -27, -22, -22, 36, 48, -47, 74, -64, -51, -34, 53, 0, -102, 89, -92, 99, -47, 89, -60, 25, -65, 43, -81, -45, -83, 97, -65, 91, 6, -70, 6, 14, -81, 101, -85, 46, 47, -69, -71, -78, 91, 101, 60, 7, -50, -80, 62},
  {51, 92, 110, -4, -26, -57, 70, -42, 56, 12, -22, 41, -50, 23, 91, -51, -23, 78, 64, -69, 61, -66, -86, -87, -47, 95, 28, -31, -55, 38, -81, -107, 94, -98, -56, -8, 31, 72, 87, -80, 40, -30, 86, -50, -52, 65, 2, -35, 65, -51, -43, -94, 87, -31, -75, -40, 85, -3, 68, -83, 37, 68, -37, 33},
  {-53, 61, -8, 39, 6, -42, -109, 11, 89, 64, -25, -59, -24, 29, 56, -58, 47, -75, -81, 89, 39, -88, 83, -7, 91, 44, 13, -19, -92, -17, -77, -67, -70, -94, -27, -9, -30, 57, -67, -35, 25, -53, 16, -71, -85, -83, 73, 61, 27, -5, 27, 81, -18, 74, 74, -38, 24, -28, 53, -25, 80, 50, 80, 59},
  {64, -21, 49, 73, 96, -77, 89, 25, -7, -80, -20, -80, 74, -80, -68, -62, -60, 48, 74, -22, -34, -76, -49, -77, 72, -48, 62, 68, 25, -17, 50, 21, -34, -40, -49, 96, -77, 10, -54, 112, -61, 99, -91, 13, -115, 57, 79, -35, -96, -57, -73, 68, 16, -19, 42, -51, 105, 99, 51, -8, -29, -29, -92, -20},
  {76, -13, 33, -3, 29, 81, 10, -43, -1, 17, -96, -17, -81, -70, 26, -48, -101, 3, -16, -100, -96, 96, -79, 100, -39, 58, 58, -67, -36, 24, -1, -5, 45, -12, 41, 54, -26, -53, -47, 14, 45, 37, -56, -77, -10, 30, 22, 16, 74, 39, -62, 3, -63, 58, -82, -52, 28, -78, 3, 51, -33, 59, 59, -3},
  {-5, -62, 54, -30, -29, 59, -65, 34, -13, 93, 107, 82, -73, 40, -66, 116, 48, 67, -79, -32, 4, -31, 112, 23, 33, 73, -3, 45, -63, 59, 89, -80, -19, -81, -106, -5, 25, -51, 12, 96, 31, 77, -33, 96, -62, 70, -101, -17, -88, 5, -47, 18, 13, 41, -59, 53, -61, 41, 33, 37, -32, -85, 54, 4},
  {60, -10, 19, 16, 51, 46, -103, 9, 41, 26, -29, -14, -103, 2, 58, -104, -59, 46, 1, 33, 103, 53, -28, -47, -9, 24, 24, 65, -27, -61, 47, 90, -23, -77, -29, -48, -114, -50, 28, -5, -99, -2, 71, -104, -31, 55, -47, -51, 16, -74, 3, 61, -4, 45, -83, 5, 0, 29, -81, -56, 42, 49, 47, 12},
  {8, -17, 42, -41, -2, 66, -85, -56, -90, 90, -57, -83, 9, -91, 9, 0, -30, -117, 50, 14, -13, -32, -35, 85, -103, 27, -5, -68, -59, 64, -36, 54, -60, -12, -10, -50, 48, -11, 94, -68, 70, 37, -82, 63, 83, -12, -33, 47, -14, 9, -77, 3, 4, -51, 16, -48, -8, 5, 64, 30, 68, -76, -55, 11},
  {-24, -77, -23, 10, 37, 64, -72, -62, -58, -113, -75, 73, -83, -87, -48, -74, 86, -54, -67, 20, 106, -110, -74, 73, 20, -37, 61, 95, 103, 1, -103, -87, -78, 32, 72, -68, -5, 25, 65, 70, 8, 59, 67, 87, 24, -109, -35, 13, -57, 96, -13, 40, -45, 85, 41, 72, -50, -3, -7, -56, -61, -91, 38, -94},
  {104, -28, -39, 57, -70, -4, 50, 23, -58, 32, -42, -50, -70, -10, -13, 10, -70, 27, -28, -24, -89, -22, 61, -73, 13, 52, 33, 54, 6, 100, 48, -68, 65, -93, -39, -5, 55, -6, 7, 71, -17, 86, -78, -19, 15, -95, -24, 102, 16, -102, 33, -68, -70, -2, 57, -13, 26, 81, 33, 12, 66, 67, -52, 70},
  {68, -34, 35, -57, 66, -19, 93, 0, -58, 65, 92, 55, 17, -32, -46, 75, -48, -41, 84, -64, 30, -52, -82, 34, 93, 72, 55, 95, -45, -78, 44, -58, 95, 74, -12, 58, -78, 3, -84, -19, 92, 51, -81, -61, -53, 93, -8, 43, -70, 3, -70, -84, 83, 68, -64, -50, -66, -54, -53, 31, -11, -33, -46, -62},
  {43, -76, 88, -5, -28, 65, -38, 94, 111, -51, 40, 30, 86, 20, -8, -40, 31, -51, 102, 66, 49, 62, 85, 9, 85, 81, 70, -57, -78, 62, 47, 23, 100, -18, 42, 49, 3, 90, -6, 37, -17, -37, 97, -50, -78, 26, -64, 94, 74, -75, -44, 47, 66, 74, 77, -24, 116, -12, -79, -84, 72, -62, -61, -87},
  {-87, -92, 28, -60, 11, -23, 29, 40, -82, 24, 75, -62, 3, 14, -46, 3, -52, -75, -57, 107, -71, 59, 59, 54, 1, 17, 46, 100, -34, -35, 86, 48, 13, 51, 100, 44, -81, 42, -32, -5, -94, -9, 46, 41, -50, 15, -33, 17, -36, -3, -11, -47, 6, -80, -63, -75, -19, -97, 72, -11, -10, 13, 76, 19},
  {-45, 28, 89, 100, 75, -36, -68, 116, -4, 111, 76, -19, -1, 83, -56, -36, -62, 95, 81, -24, -31, 30, -62, 52, 24, -13, 83, 6, -28, -62, -83, -3, 72, -57, 34, 57, 127, 78, -89, 63, -43, 29, 75, -26, -68, 112, -58, -45, -77, -56, -89, 1, 32, -35, -4, -63, 53, 53, 8, 20, -70, 28, -64, -85},
  {-96, -63, -112, 9, -10, -73, 3, 77, 89, -22, -75, 24, 42, 49, 2, -49, -44, -2, -52, 22, -15, 72, -91, 86, 12, 10, -56, -65, -6, 43, -27, -5, 41, -79, 99, -46, -16, 96, 44, 86, -46, 48, -96, -57, 55, -61, 74, -48, 43, -81, 56, -44, -98, -49, 80, 91, -55, -83, -59, -19, 33, -3, -83, 53},
  {70, 82, -2, -26, -43, -56, 54, -19, 45, -39, 36, 75, -65, -5, 3, -42, 52, -7, 58, -5, -80, -8, -97, -67, 108, 41, -23, -78, -33, 54, -86, -18, -74, 67, 99, 89, 66, -7, 48, -62, -77, 23, -48, -12, -12, -40, -80, -9, 69, -43, 81, 80, -74, -93, 5, 27, -37, 64, 10, 97, -36, -97, 83, 62},
  {-63, 41, 45, -7, -62, 35, 73, -77, -97, 9, 74, -21, -15, 8, 41, 54, 41, -4, 77, -54, 78, 39, -48, -103, 21, -37, -45, 21, 12, 38, -40, 83, -76, 74, -39, -63, -19, 16, 22, -97, 49, 75, 71, -82, -1, 79, -69, 4, -2, 35, 58, -90, 47, -32, 59, 31, -92, -29, -11, 1, 26, -20, -51, -36},
  {-74, -8, 15, -17, 6, 88, 72, -25, 53, 102, -20, 67, -38, -38, -51, -63, 14, 78, 32, -101, -85, 66, 39, -58, -41, 20, 53, 1, 35, 99, 65, 49, 119, 16, 46, -18, 120, 55, 60, -28, 28, 90, -7, 71, 67, 30, -79, 60, -16, -10, 27, 87, 42, -31, 109, 2, -58, 83, 16, -17, -65, -36, -50, 9},
  {4, 31, -7, 31, -104, -31, 45, 3, 3, 23, 23, -46, 55, -11, 32, -23, 91, -50, -101, -60, 41, -2, -31, 45, -21, 31, -107, 69, 7, 14, 13, 87, -85, 55, -1, -72, -26, 12, 22, -30, -40, 72, 38, 52, -82, -105, 3, -8, 15, 28, 76, -66, -56, -95, -48, -30, -69, 37, 4, -25, -72, 10, 74, 30},
  {-42, -70, 62, 89, 5, -37, -93, 49, 62, -60, -37, 107, 60, 6, -45, 109, -71, 83, -19, -37, -76, 56, 82, -29, 93, 41, -23, 87, 80, 17, 3, 16, -15, 82, -71, 87, 54, -48, 64, 41, 60, 98, 30, -66, 37, 22, -86, -19, 36, 46, 16, 71, 62, 24, -24, -3, -38, -19, -93, -11, -86, -38, -27, -3},
  {-83, -104, 33, -38, 49, -34, 57, 28, -44, -63, -71, 45, 71, -86, 23, 60, 102, 12, -14, 9, 74, -11, 40, 105, 73, 94, -79, -62, -58, 0, -46, -23, 82, -67, -11, -43, 109, 49, -18, 28, 5, -57, 72, -81, 2, 18, 44, 78, 34, -19, -66, 5, -3, -73, -52, 42, 42, -45, -12, -101, -17, -36, 53, -92},
  {58, -3, 67, -20, 93, -35, -60, 117, -56, 2, 46, 23, 55, -15, 58, 69, -45, -52, 81, 41, 71, -15, 66, -57, -60, -59, 28, -19, 55, -1, 50, 33, -42, 8, -11, 110, -11, -74, -30, 85, 106, 17, 13, 67, -97, 103, 65, 66, -44, 28, 10, 54, 9, 91, 122, 79, -4, 4, -3, -19, -43, -31, -64, -92}
};

// fc3 bias: 32
const int8_t fc3_bias[32] PROGMEM = {
  -120, -55, -1, 25, -127, -9, -1, 20, -36, 53, -27, -38, 41, -33, -12, -77, -25, -23, 23, -47, -29, 113, -63, -73, 65, -21, 7, -20, 8, 29, 69, -68
};

// fc_out weights: 2 x 32
const int8_t fc_out_weight[2][32] PROGMEM = {
  {22, 58, -5, -46, 5, 48, -40, -51, -63, 17, 74, 118, 75, 45, 116, -82, 13, -6, -20, -72, -60, 56, 57, -57, 53, 103, 11, -4, -70, 65, 97, 23},
  {-83, 32, 17, 42, 63, -72, -72, -48, -52, -102, -101, 49, -51, 17, 36, -3, -97, -118, -21, -9, -35, 77, -127, 37, -108, -90, -110, 50, -115, 50, 55, 57}
};

// fc_out bias: 2
const int8_t fc_out_bias[2] PROGMEM = {
  105, -127
};

#endif // SNN_WEIGHTS_H
